-0.428126
-0.183002
0.143755
0.281727
0.208070
-0.184372
0.217292
0.204411
-0.385963
-0.206152
-0.348355
-0.386777
0.136139
0.294754
-0.071334
-0.125891
-0.019415
-0.376790
0.197238
-0.096347
0.150582
0.368254
0.258629
0.144042
-0.070598
-0.121625
0.232246
-0.068874
0.392494
-0.263944
-0.486214
0.394482
0.234389
-0.534933
0.220759
-0.268747
0.071699
0.030956
-0.151356
-0.035315
-0.119947
0.243283
-0.270186
0.382728
-0.319307
0.314215
0.392090
0.195290
0.070992
-0.412564
-0.026639
0.199983
-0.190630
-0.058478
-0.069505
-0.133630
-0.103812
0.153720
0.115646
-0.190106
-0.182328
-0.366602
-0.425740
-0.116012
-0.047329
0.148028
-0.228786
0.162362
-0.037697
0.076180
0.272572
0.264229
0.438526
0.092150
-0.000393
0.146442
-0.430944
0.395460
-0.131388
-0.330753
0.115323
-0.271224
0.027991
-0.179654
-0.172371
-0.017414
0.363048
-0.443746
-0.171244
0.172089
0.380954
0.350329
-0.330338
-0.221507
-0.050562
-0.111038
0.100467
0.152879
-0.022611
0.036141
0.346671
-0.409199
0.157487
-0.169823
0.010647
0.276877
0.133680
0.032770
-0.285523
0.128896
0.001589
0.356291
0.366618
-0.135107
0.187291
0.103964
0.238931
-0.139717
-0.017514
0.097924
0.025806
-0.412718
0.101430
0.348251
-0.229302
0.100962
-0.134802
-0.308511
