-0.034956
-0.096456
-0.067901
-0.080249
-0.099322
-0.122902
-0.107398
-0.238759
-0.127516
-0.027535
-0.050750
-0.140154
-0.105678
-0.087428
0.076561
0.076583
-0.004669
-0.143357
-0.031153
0.105514
-0.007228
-0.038915
-0.157268
0.062156
-0.005889
0.090679
-0.172343
-0.069034
-0.080689
-0.162563
-0.107895
0.029875
-0.001224
0.160341
0.139175
-0.132491
-0.053903
0.029303
-0.039254
-0.001057
-0.099923
-0.072916
-0.035751
-0.041048
-0.204252
-0.074450
-0.083742
0.030456
0.012445
0.083373
0.116237
-0.087677
-0.015751
-0.049070
0.048782
-0.174308
-0.077830
-0.083137
0.056227
0.068496
-0.056790
-0.032579
-0.123673
-0.015008
-0.002424
-0.090582
0.019703
-0.138858
-0.150232
-0.180252
-0.100155
-0.107289
-0.026258
0.051265
-0.061099
-0.200017
-0.131189
0.069423
-0.136381
-0.135106
-0.037383
-0.046687
-0.015272
-0.064417
0.029556
-0.017210
-0.120799
-0.103676
-0.144071
-0.075030
0.006345
-0.092359
0.024600
0.046783
-0.114294
-0.125533
-0.052109
-0.121117
-0.044135
-0.079979
-0.094416
-0.133958
-0.071443
0.044205
0.039525
-0.142398
-0.040468
0.038563
-0.045397
-0.060185
0.003756
-0.088616
0.038404
-0.049509
-0.055179
0.002699
0.048215
-0.179785
0.001084
-0.136111
-0.110883
-0.006441
0.044015
-0.134434
-0.050839
0.127123
0.016003
-0.010854
